digraph Tree {
node [shape=box] ;
0 [label="maxPitch <= 263.51\ngini = 0.499\nsamples = 495\nvalue = [261, 234]"] ;
1 [label="stdPitch <= 24.28\ngini = 0.36\nsamples = 234\nvalue = [179, 55]"] ;
0 -> 1 [labeldistance=2.5, labelangle=45, headlabel="True"] ;
2 [label="maxIntensity <= 91.375\ngini = 0.165\nsamples = 110\nvalue = [100, 10]"] ;
1 -> 2 ;
3 [label="minIntensity <= 44.265\ngini = 0.03\nsamples = 66\nvalue = [65, 1]"] ;
2 -> 3 ;
4 [label="gini = 0.0\nsamples = 62\nvalue = [62, 0]"] ;
3 -> 4 ;
5 [label="stdPitch <= 20.475\ngini = 0.375\nsamples = 4\nvalue = [3, 1]"] ;
3 -> 5 ;
6 [label="gini = 0.0\nsamples = 3\nvalue = [3, 0]"] ;
5 -> 6 ;
7 [label="gini = 0.0\nsamples = 1\nvalue = [0, 1]"] ;
5 -> 7 ;
8 [label="intensity <= 69.07\ngini = 0.325\nsamples = 44\nvalue = [35, 9]"] ;
2 -> 8 ;
9 [label="maxIntensity <= 91.99\ngini = 0.444\nsamples = 3\nvalue = [1, 2]"] ;
8 -> 9 ;
10 [label="gini = 0.0\nsamples = 1\nvalue = [1, 0]"] ;
9 -> 10 ;
11 [label="gini = 0.0\nsamples = 2\nvalue = [0, 2]"] ;
9 -> 11 ;
12 [label="stdIntensity <= 12.03\ngini = 0.283\nsamples = 41\nvalue = [34, 7]"] ;
8 -> 12 ;
13 [label="intensity <= 73.025\ngini = 0.434\nsamples = 22\nvalue = [15, 7]"] ;
12 -> 13 ;
14 [label="gini = 0.0\nsamples = 3\nvalue = [0, 3]"] ;
13 -> 14 ;
15 [label="minPitch <= 75.975\ngini = 0.332\nsamples = 19\nvalue = [15, 4]"] ;
13 -> 15 ;
16 [label="pitch <= 103.735\ngini = 0.219\nsamples = 16\nvalue = [14, 2]"] ;
15 -> 16 ;
17 [label="gini = 0.0\nsamples = 1\nvalue = [0, 1]"] ;
16 -> 17 ;
18 [label="minPitch <= 73.68\ngini = 0.124\nsamples = 15\nvalue = [14, 1]"] ;
16 -> 18 ;
19 [label="stdPitch <= 19.695\ngini = 0.5\nsamples = 2\nvalue = [1, 1]"] ;
18 -> 19 ;
20 [label="gini = 0.0\nsamples = 1\nvalue = [1, 0]"] ;
19 -> 20 ;
21 [label="gini = 0.0\nsamples = 1\nvalue = [0, 1]"] ;
19 -> 21 ;
22 [label="gini = 0.0\nsamples = 13\nvalue = [13, 0]"] ;
18 -> 22 ;
23 [label="stdPitch <= 21.175\ngini = 0.444\nsamples = 3\nvalue = [1, 2]"] ;
15 -> 23 ;
24 [label="gini = 0.0\nsamples = 1\nvalue = [1, 0]"] ;
23 -> 24 ;
25 [label="gini = 0.0\nsamples = 2\nvalue = [0, 2]"] ;
23 -> 25 ;
26 [label="gini = 0.0\nsamples = 19\nvalue = [19, 0]"] ;
12 -> 26 ;
27 [label="minPitch <= 75.76\ngini = 0.462\nsamples = 124\nvalue = [79, 45]"] ;
1 -> 27 ;
28 [label="minPitch <= 75.145\ngini = 0.496\nsamples = 79\nvalue = [43, 36]"] ;
27 -> 28 ;
29 [label="minIntensity <= 38.63\ngini = 0.462\nsamples = 58\nvalue = [37, 21]"] ;
28 -> 29 ;
30 [label="pitch <= 122.48\ngini = 0.305\nsamples = 32\nvalue = [26, 6]"] ;
29 -> 30 ;
31 [label="minPitch <= 68.69\ngini = 0.159\nsamples = 23\nvalue = [21, 2]"] ;
30 -> 31 ;
32 [label="gini = 0.0\nsamples = 1\nvalue = [0, 1]"] ;
31 -> 32 ;
33 [label="stdPitch <= 28.995\ngini = 0.087\nsamples = 22\nvalue = [21, 1]"] ;
31 -> 33 ;
34 [label="gini = 0.0\nsamples = 15\nvalue = [15, 0]"] ;
33 -> 34 ;
35 [label="stdPitch <= 29.335\ngini = 0.245\nsamples = 7\nvalue = [6, 1]"] ;
33 -> 35 ;
36 [label="gini = 0.0\nsamples = 1\nvalue = [0, 1]"] ;
35 -> 36 ;
37 [label="gini = 0.0\nsamples = 6\nvalue = [6, 0]"] ;
35 -> 37 ;
38 [label="minPitch <= 74.88\ngini = 0.494\nsamples = 9\nvalue = [5, 4]"] ;
30 -> 38 ;
39 [label="stdPitch <= 52.065\ngini = 0.32\nsamples = 5\nvalue = [1, 4]"] ;
38 -> 39 ;
40 [label="gini = 0.0\nsamples = 4\nvalue = [0, 4]"] ;
39 -> 40 ;
41 [label="gini = 0.0\nsamples = 1\nvalue = [1, 0]"] ;
39 -> 41 ;
42 [label="gini = 0.0\nsamples = 4\nvalue = [4, 0]"] ;
38 -> 42 ;
43 [label="maxPitch <= 234.525\ngini = 0.488\nsamples = 26\nvalue = [11, 15]"] ;
29 -> 43 ;
44 [label="gini = 0.0\nsamples = 5\nvalue = [5, 0]"] ;
43 -> 44 ;
45 [label="minIntensity <= 46.0\ngini = 0.408\nsamples = 21\nvalue = [6, 15]"] ;
43 -> 45 ;
46 [label="stdPitch <= 24.955\ngini = 0.245\nsamples = 14\nvalue = [2, 12]"] ;
45 -> 46 ;
47 [label="gini = 0.0\nsamples = 1\nvalue = [1, 0]"] ;
46 -> 47 ;
48 [label="pitch <= 123.42\ngini = 0.142\nsamples = 13\nvalue = [1, 12]"] ;
46 -> 48 ;
49 [label="gini = 0.0\nsamples = 12\nvalue = [0, 12]"] ;
48 -> 49 ;
50 [label="gini = 0.0\nsamples = 1\nvalue = [1, 0]"] ;
48 -> 50 ;
51 [label="stdIntensity <= 9.28\ngini = 0.49\nsamples = 7\nvalue = [4, 3]"] ;
45 -> 51 ;
52 [label="gini = 0.0\nsamples = 3\nvalue = [0, 3]"] ;
51 -> 52 ;
53 [label="gini = 0.0\nsamples = 4\nvalue = [4, 0]"] ;
51 -> 53 ;
54 [label="intensity <= 77.255\ngini = 0.408\nsamples = 21\nvalue = [6, 15]"] ;
28 -> 54 ;
55 [label="stdIntensity <= 15.86\ngini = 0.278\nsamples = 18\nvalue = [3, 15]"] ;
54 -> 55 ;
56 [label="minIntensity <= 42.675\ngini = 0.208\nsamples = 17\nvalue = [2, 15]"] ;
55 -> 56 ;
57 [label="gini = 0.0\nsamples = 13\nvalue = [0, 13]"] ;
56 -> 57 ;
58 [label="stdPitch <= 32.99\ngini = 0.5\nsamples = 4\nvalue = [2, 2]"] ;
56 -> 58 ;
59 [label="gini = 0.0\nsamples = 2\nvalue = [2, 0]"] ;
58 -> 59 ;
60 [label="gini = 0.0\nsamples = 2\nvalue = [0, 2]"] ;
58 -> 60 ;
61 [label="gini = 0.0\nsamples = 1\nvalue = [1, 0]"] ;
55 -> 61 ;
62 [label="gini = 0.0\nsamples = 3\nvalue = [3, 0]"] ;
54 -> 62 ;
63 [label="intensity <= 79.01\ngini = 0.32\nsamples = 45\nvalue = [36, 9]"] ;
27 -> 63 ;
64 [label="minIntensity <= 48.815\ngini = 0.278\nsamples = 42\nvalue = [35, 7]"] ;
63 -> 64 ;
65 [label="maxIntensity <= 89.635\ngini = 0.25\nsamples = 41\nvalue = [35, 6]"] ;
64 -> 65 ;
66 [label="gini = 0.0\nsamples = 1\nvalue = [0, 1]"] ;
65 -> 66 ;
67 [label="stdPitch <= 25.395\ngini = 0.219\nsamples = 40\nvalue = [35, 5]"] ;
65 -> 67 ;
68 [label="gini = 0.0\nsamples = 1\nvalue = [0, 1]"] ;
67 -> 68 ;
69 [label="maxPitch <= 222.985\ngini = 0.184\nsamples = 39\nvalue = [35, 4]"] ;
67 -> 69 ;
70 [label="intensity <= 73.52\ngini = 0.48\nsamples = 5\nvalue = [3, 2]"] ;
69 -> 70 ;
71 [label="gini = 0.0\nsamples = 2\nvalue = [0, 2]"] ;
70 -> 71 ;
72 [label="gini = 0.0\nsamples = 3\nvalue = [3, 0]"] ;
70 -> 72 ;
73 [label="minIntensity <= 33.945\ngini = 0.111\nsamples = 34\nvalue = [32, 2]"] ;
69 -> 73 ;
74 [label="minIntensity <= 32.345\ngini = 0.26\nsamples = 13\nvalue = [11, 2]"] ;
73 -> 74 ;
75 [label="gini = 0.0\nsamples = 11\nvalue = [11, 0]"] ;
74 -> 75 ;
76 [label="gini = 0.0\nsamples = 2\nvalue = [0, 2]"] ;
74 -> 76 ;
77 [label="gini = 0.0\nsamples = 21\nvalue = [21, 0]"] ;
73 -> 77 ;
78 [label="gini = 0.0\nsamples = 1\nvalue = [0, 1]"] ;
64 -> 78 ;
79 [label="stdIntensity <= 8.86\ngini = 0.444\nsamples = 3\nvalue = [1, 2]"] ;
63 -> 79 ;
80 [label="gini = 0.0\nsamples = 1\nvalue = [1, 0]"] ;
79 -> 80 ;
81 [label="gini = 0.0\nsamples = 2\nvalue = [0, 2]"] ;
79 -> 81 ;
82 [label="pitch <= 115.04\ngini = 0.431\nsamples = 261\nvalue = [82, 179]"] ;
0 -> 82 [labeldistance=2.5, labelangle=-45, headlabel="False"] ;
83 [label="intensity <= 70.715\ngini = 0.496\nsamples = 108\nvalue = [59, 49]"] ;
82 -> 83 ;
84 [label="stdPitch <= 40.65\ngini = 0.124\nsamples = 15\nvalue = [14, 1]"] ;
83 -> 84 ;
85 [label="gini = 0.0\nsamples = 13\nvalue = [13, 0]"] ;
84 -> 85 ;
86 [label="pitch <= 111.845\ngini = 0.5\nsamples = 2\nvalue = [1, 1]"] ;
84 -> 86 ;
87 [label="gini = 0.0\nsamples = 1\nvalue = [0, 1]"] ;
86 -> 87 ;
88 [label="gini = 0.0\nsamples = 1\nvalue = [1, 0]"] ;
86 -> 88 ;
89 [label="stdPitch <= 26.715\ngini = 0.499\nsamples = 93\nvalue = [45, 48]"] ;
83 -> 89 ;
90 [label="minPitch <= 73.8\ngini = 0.417\nsamples = 27\nvalue = [19, 8]"] ;
89 -> 90 ;
91 [label="pitch <= 111.06\ngini = 0.32\nsamples = 5\nvalue = [1, 4]"] ;
90 -> 91 ;
92 [label="gini = 0.0\nsamples = 4\nvalue = [0, 4]"] ;
91 -> 92 ;
93 [label="gini = 0.0\nsamples = 1\nvalue = [1, 0]"] ;
91 -> 93 ;
94 [label="intensity <= 73.97\ngini = 0.298\nsamples = 22\nvalue = [18, 4]"] ;
90 -> 94 ;
95 [label="gini = 0.0\nsamples = 12\nvalue = [12, 0]"] ;
94 -> 95 ;
96 [label="stdPitch <= 24.27\ngini = 0.48\nsamples = 10\nvalue = [6, 4]"] ;
94 -> 96 ;
97 [label="stdPitch <= 22.15\ngini = 0.444\nsamples = 6\nvalue = [2, 4]"] ;
96 -> 97 ;
98 [label="gini = 0.0\nsamples = 2\nvalue = [2, 0]"] ;
97 -> 98 ;
99 [label="gini = 0.0\nsamples = 4\nvalue = [0, 4]"] ;
97 -> 99 ;
100 [label="gini = 0.0\nsamples = 4\nvalue = [4, 0]"] ;
96 -> 100 ;
101 [label="minIntensity <= 36.56\ngini = 0.478\nsamples = 66\nvalue = [26, 40]"] ;
89 -> 101 ;
102 [label="maxIntensity <= 92.205\ngini = 0.346\nsamples = 27\nvalue = [6, 21]"] ;
101 -> 102 ;
103 [label="minPitch <= 76.4\ngini = 0.269\nsamples = 25\nvalue = [4, 21]"] ;
102 -> 103 ;
104 [label="minPitch <= 69.465\ngini = 0.165\nsamples = 22\nvalue = [2, 20]"] ;
103 -> 104 ;
105 [label="gini = 0.0\nsamples = 1\nvalue = [1, 0]"] ;
104 -> 105 ;
106 [label="intensity <= 72.05\ngini = 0.091\nsamples = 21\nvalue = [1, 20]"] ;
104 -> 106 ;
107 [label="minPitch <= 74.155\ngini = 0.375\nsamples = 4\nvalue = [1, 3]"] ;
106 -> 107 ;
108 [label="gini = 0.0\nsamples = 1\nvalue = [1, 0]"] ;
107 -> 108 ;
109 [label="gini = 0.0\nsamples = 3\nvalue = [0, 3]"] ;
107 -> 109 ;
110 [label="gini = 0.0\nsamples = 17\nvalue = [0, 17]"] ;
106 -> 110 ;
111 [label="minIntensity <= 32.03\ngini = 0.444\nsamples = 3\nvalue = [2, 1]"] ;
103 -> 111 ;
112 [label="gini = 0.0\nsamples = 2\nvalue = [2, 0]"] ;
111 -> 112 ;
113 [label="gini = 0.0\nsamples = 1\nvalue = [0, 1]"] ;
111 -> 113 ;
114 [label="gini = 0.0\nsamples = 2\nvalue = [2, 0]"] ;
102 -> 114 ;
115 [label="maxIntensity <= 91.88\ngini = 0.5\nsamples = 39\nvalue = [20, 19]"] ;
101 -> 115 ;
116 [label="pitch <= 108.165\ngini = 0.478\nsamples = 33\nvalue = [20, 13]"] ;
115 -> 116 ;
117 [label="gini = 0.0\nsamples = 6\nvalue = [6, 0]"] ;
116 -> 117 ;
118 [label="pitch <= 113.085\ngini = 0.499\nsamples = 27\nvalue = [14, 13]"] ;
116 -> 118 ;
119 [label="maxIntensity <= 91.825\ngini = 0.444\nsamples = 18\nvalue = [6, 12]"] ;
118 -> 119 ;
120 [label="minIntensity <= 38.27\ngini = 0.375\nsamples = 16\nvalue = [4, 12]"] ;
119 -> 120 ;
121 [label="gini = 0.0\nsamples = 1\nvalue = [1, 0]"] ;
120 -> 121 ;
122 [label="pitch <= 110.97\ngini = 0.32\nsamples = 15\nvalue = [3, 12]"] ;
120 -> 122 ;
123 [label="stdPitch <= 28.915\ngini = 0.49\nsamples = 7\nvalue = [3, 4]"] ;
122 -> 123 ;
124 [label="gini = 0.0\nsamples = 3\nvalue = [0, 3]"] ;
123 -> 124 ;
125 [label="minIntensity <= 39.35\ngini = 0.375\nsamples = 4\nvalue = [3, 1]"] ;
123 -> 125 ;
126 [label="gini = 0.0\nsamples = 1\nvalue = [0, 1]"] ;
125 -> 126 ;
127 [label="gini = 0.0\nsamples = 3\nvalue = [3, 0]"] ;
125 -> 127 ;
128 [label="gini = 0.0\nsamples = 8\nvalue = [0, 8]"] ;
122 -> 128 ;
129 [label="gini = 0.0\nsamples = 2\nvalue = [2, 0]"] ;
119 -> 129 ;
130 [label="maxPitch <= 280.13\ngini = 0.198\nsamples = 9\nvalue = [8, 1]"] ;
118 -> 130 ;
131 [label="gini = 0.0\nsamples = 6\nvalue = [6, 0]"] ;
130 -> 131 ;
132 [label="intensity <= 74.775\ngini = 0.444\nsamples = 3\nvalue = [2, 1]"] ;
130 -> 132 ;
133 [label="gini = 0.0\nsamples = 2\nvalue = [2, 0]"] ;
132 -> 133 ;
134 [label="gini = 0.0\nsamples = 1\nvalue = [0, 1]"] ;
132 -> 134 ;
135 [label="gini = 0.0\nsamples = 6\nvalue = [0, 6]"] ;
115 -> 135 ;
136 [label="maxPitch <= 313.895\ngini = 0.255\nsamples = 153\nvalue = [23, 130]"] ;
82 -> 136 ;
137 [label="stdIntensity <= 14.23\ngini = 0.193\nsamples = 139\nvalue = [15, 124]"] ;
136 -> 137 ;
138 [label="intensity <= 69.335\ngini = 0.172\nsamples = 137\nvalue = [13, 124]"] ;
137 -> 138 ;
139 [label="gini = 0.0\nsamples = 1\nvalue = [1, 0]"] ;
138 -> 139 ;
140 [label="stdPitch <= 24.635\ngini = 0.161\nsamples = 136\nvalue = [12, 124]"] ;
138 -> 140 ;
141 [label="gini = 0.0\nsamples = 1\nvalue = [1, 0]"] ;
140 -> 141 ;
142 [label="maxIntensity <= 92.365\ngini = 0.15\nsamples = 135\nvalue = [11, 124]"] ;
140 -> 142 ;
143 [label="minPitch <= 75.965\ngini = 0.122\nsamples = 123\nvalue = [8, 115]"] ;
142 -> 143 ;
144 [label="minPitch <= 72.74\ngini = 0.087\nsamples = 110\nvalue = [5, 105]"] ;
143 -> 144 ;
145 [label="stdIntensity <= 11.565\ngini = 0.266\nsamples = 19\nvalue = [3, 16]"] ;
144 -> 145 ;
146 [label="minPitch <= 72.505\ngini = 0.117\nsamples = 16\nvalue = [1, 15]"] ;
145 -> 146 ;
147 [label="gini = 0.0\nsamples = 15\nvalue = [0, 15]"] ;
146 -> 147 ;
148 [label="gini = 0.0\nsamples = 1\nvalue = [1, 0]"] ;
146 -> 148 ;
149 [label="stdPitch <= 41.18\ngini = 0.444\nsamples = 3\nvalue = [2, 1]"] ;
145 -> 149 ;
150 [label="gini = 0.0\nsamples = 1\nvalue = [0, 1]"] ;
149 -> 150 ;
151 [label="gini = 0.0\nsamples = 2\nvalue = [2, 0]"] ;
149 -> 151 ;
152 [label="intensity <= 73.78\ngini = 0.043\nsamples = 91\nvalue = [2, 89]"] ;
144 -> 152 ;
153 [label="intensity <= 73.69\ngini = 0.105\nsamples = 36\nvalue = [2, 34]"] ;
152 -> 153 ;
154 [label="maxPitch <= 302.405\ngini = 0.057\nsamples = 34\nvalue = [1, 33]"] ;
153 -> 154 ;
155 [label="gini = 0.0\nsamples = 29\nvalue = [0, 29]"] ;
154 -> 155 ;
156 [label="maxPitch <= 304.29\ngini = 0.32\nsamples = 5\nvalue = [1, 4]"] ;
154 -> 156 ;
157 [label="gini = 0.0\nsamples = 1\nvalue = [1, 0]"] ;
156 -> 157 ;
158 [label="gini = 0.0\nsamples = 4\nvalue = [0, 4]"] ;
156 -> 158 ;
159 [label="maxIntensity <= 91.125\ngini = 0.5\nsamples = 2\nvalue = [1, 1]"] ;
153 -> 159 ;
160 [label="gini = 0.0\nsamples = 1\nvalue = [1, 0]"] ;
159 -> 160 ;
161 [label="gini = 0.0\nsamples = 1\nvalue = [0, 1]"] ;
159 -> 161 ;
162 [label="gini = 0.0\nsamples = 55\nvalue = [0, 55]"] ;
152 -> 162 ;
163 [label="minIntensity <= 41.6\ngini = 0.355\nsamples = 13\nvalue = [3, 10]"] ;
143 -> 163 ;
164 [label="stdIntensity <= 11.345\ngini = 0.18\nsamples = 10\nvalue = [1, 9]"] ;
163 -> 164 ;
165 [label="gini = 0.0\nsamples = 9\nvalue = [0, 9]"] ;
164 -> 165 ;
166 [label="gini = 0.0\nsamples = 1\nvalue = [1, 0]"] ;
164 -> 166 ;
167 [label="minIntensity <= 45.4\ngini = 0.444\nsamples = 3\nvalue = [2, 1]"] ;
163 -> 167 ;
168 [label="gini = 0.0\nsamples = 2\nvalue = [2, 0]"] ;
167 -> 168 ;
169 [label="gini = 0.0\nsamples = 1\nvalue = [0, 1]"] ;
167 -> 169 ;
170 [label="minIntensity <= 38.395\ngini = 0.375\nsamples = 12\nvalue = [3, 9]"] ;
142 -> 170 ;
171 [label="stdIntensity <= 12.195\ngini = 0.5\nsamples = 6\nvalue = [3, 3]"] ;
170 -> 171 ;
172 [label="maxIntensity <= 92.575\ngini = 0.375\nsamples = 4\nvalue = [3, 1]"] ;
171 -> 172 ;
173 [label="gini = 0.0\nsamples = 3\nvalue = [3, 0]"] ;
172 -> 173 ;
174 [label="gini = 0.0\nsamples = 1\nvalue = [0, 1]"] ;
172 -> 174 ;
175 [label="gini = 0.0\nsamples = 2\nvalue = [0, 2]"] ;
171 -> 175 ;
176 [label="gini = 0.0\nsamples = 6\nvalue = [0, 6]"] ;
170 -> 176 ;
177 [label="gini = 0.0\nsamples = 2\nvalue = [2, 0]"] ;
137 -> 177 ;
178 [label="maxIntensity <= 91.485\ngini = 0.49\nsamples = 14\nvalue = [8, 6]"] ;
136 -> 178 ;
179 [label="gini = 0.0\nsamples = 7\nvalue = [7, 0]"] ;
178 -> 179 ;
180 [label="stdPitch <= 64.82\ngini = 0.245\nsamples = 7\nvalue = [1, 6]"] ;
178 -> 180 ;
181 [label="gini = 0.0\nsamples = 6\nvalue = [0, 6]"] ;
180 -> 181 ;
182 [label="gini = 0.0\nsamples = 1\nvalue = [1, 0]"] ;
180 -> 182 ;
}